{
  "vocabulary": [
    "critical",
    "vulnerability",
    "rce",
    "in",
    "npm",
    "package",
    "lodash",
    "exploited",
    "the",
    "wild",
    "__threat__:critical:critical vulnerability",
    "__threat__:critical:rce",
    "__threat__:high:exploit",
    "__threat__:high:vulnerability",
    "__threat__:high:npm package",
    "malware",
    "found",
    "supply",
    "chain",
    "attack",
    "compromises",
    "thousands",
    "of",
    "projects",
    "__threat__:critical:supply chain attack",
    "__threat__:critical:malware found",
    "cve-2024-1234",
    "remote",
    "code",
    "execution",
    "patch",
    "immediately",
    "__threat__:critical:remote code execution",
    "__threat__:high:cve-",
    "__threat__:high:patch immediately",
    "security",
    "advisory",
    "typosquat",
    "backdoor",
    "discovered",
    "popular",
    "library",
    "__threat__:high:security advisory",
    "__threat__:high:typosquat",
    "__threat__:high:backdoor",
    "how",
    "to",
    "improve",
    "your",
    "javascript",
    "coding",
    "style",
    "this",
    "summer",
    "top",
    "10",
    "frontend",
    "frameworks",
    "opinion",
    "piece",
    "for",
    "beginners",
    "company",
    "announces",
    "new",
    "office",
    "location",
    "and",
    "hiring",
    "plans",
    "weekly",
    "digest",
    "open",
    "source",
    "community",
    "events"
  ],
  "inputSize": 76,
  "hiddenSize": 8,
  "weightsHidden": [
    [
      -0.0667060793302647,
      -0.09578308304200042,
      -0.10931752282542924,
      -0.023442944730566524,
      0.04268666080539909,
      -0.07444746047521557,
      0.08227748180936853,
      0.03867990980321669,
      0.0823905550218263,
      0.011732016364433606,
      -0.03237746585625851,
      0.02309955128753147,
      0.0030479221114421977,
      -0.008057046370121553,
      0.05408936385022178,
      0.0017008501780283237,
      -0.09195801365428768,
      -0.06723934099677482,
      0.016375677969283586,
      -0.022674515854798162,
      0.06597764813197604,
      -0.0828050940720519,
      -0.004295485956673446,
      0.029198802650107415,
      -0.0798757907086229,
      -0.04775490777014162,
      -0.04033237085465377,
      -0.0222332216287749,
      -0.004799389736684141,
      0.0663065776790529,
      -0.051545868707456984,
      -0.054393069289718717,
      0.011559214798850564,
      -0.026747382098736703,
      0.019048263652481603,
      -0.0746735845881069,
      0.08150132480484747,
      0.03942443079370683,
      -0.05283881663593544,
      -0.07674385123553691,
      -0.03898319159607984,
      0.07410062672717728,
      0.050073321242588786,
      -0.008766021390763656,
      -0.08697176832255411,
      0.11913258456009308,
      0.047763103850118074,
      0.10708105805905593,
      0.07746914520790814,
      0.08945221066466172,
      0.1054816160562391,
      0.007896786662119498,
      0.07781160288096209,
      0.05386948380552964,
      0.03752424027899126,
      0.04987544587151486,
      -0.08465129133236188,
      -0.01568409611503479,
      -0.007457742479609136,
      0.04507045763088971,
      -0.08499724467903855,
      0.061007447848286635,
      -0.014478266261591067,
      -0.048551899437010215,
      -0.055424469075474776,
      -0.055751133617019194,
      -0.04012741758654914,
      0.0926745262041694,
      -0.04599116290538978,
      0.07861643215162162,
      0.09710239539553972,
      0.035896243760511634,
      0.09833757195234606,
      0.0882072042327843,
      -0.014311634432984043,
      0.07848828917383432
    ],
    [
      0.005212806110579506,
      -0.01868905633906819,
      -0.042977533247421214,
      -0.15232460990176822,
      -0.045918506211559844,
      0.026263257538369562,
      -0.08137317180334602,
      0.04832478133679368,
      -0.10628791312479408,
      -0.050202431638144175,
      -0.019291755524618526,
      0.2058539506183462,
      -0.08399532312889596,
      0.02471630759892827,
      0.028259852624563434,
      -0.1271348618539057,
      -0.06943148905615198,
      -0.11208826029409827,
      -0.08948367410552137,
      -0.05070169964260796,
      -0.0652661962769815,
      0.024494416196887983,
      0.22457546718565846,
      0.05992689378044648,
      -0.07668655963015077,
      0.0651290561794472,
      -0.07099942483113475,
      0.04899770410444869,
      -0.09801988989819951,
      -0.03127332618626817,
      -0.12665812952250138,
      0.0361839448546559,
      0.02071913242370813,
      -0.08422137516626842,
      -0.10937613933418748,
      -0.10608945660212298,
      0.046270406042054776,
      -0.02093336713564955,
      -0.009673154233811388,
      0.04196704549682191,
      0.04811883712276155,
      -0.046888801546519546,
      -0.06048839979860085,
      -0.1092876711757036,
      -0.04544418229894223,
      0.06984766042476445,
      -0.07272764967411352,
      -0.054955898350140996,
      -0.086587146770087,
      -0.046352226132661094,
      -0.07729103974368408,
      0.027461773722042875,
      -0.004465442320089639,
      -0.021278107130014372,
      0.230617074332654,
      0.22527429915401137,
      0.24652932793717575,
      0.12241966593675754,
      0.26164703094852393,
      0.11348317793743694,
      0.20415938027159797,
      0.17720058946865652,
      0.14098262228316133,
      0.1563803123050316,
      0.10146990835856284,
      0.20720654027758414,
      0.2381656569974057,
      0.11103812175224173,
      0.07890720344704505,
      0.2207066498422194,
      0.13185860147090628,
      0.20783160332733086,
      0.08982315207715034,
      0.20949988775834077,
      0.12589816946719506,
      0.2638846656346351
    ],
    [
      0.00012550356482831352,
      -0.028137377195131992,
      -0.1044168302880732,
      -0.22544500361371753,
      -0.14979557345562156,
      -0.026923990153999298,
      -0.043174118379689326,
      -0.07002709194342813,
      -0.0411340963628647,
      0.09275668351315366,
      -0.07984735167062973,
      0.3101136200144458,
      -0.05801134662505135,
      -0.09289194146528201,
      -0.059214786222380356,
      -0.03563539716309497,
      -0.06044224540641236,
      -0.08830551985266642,
      -0.001848914548590133,
      -0.010550388005056425,
      -0.09027660778573027,
      -0.029288369250572897,
      0.1532262548992373,
      -0.1340848173983201,
      -0.02289835551950133,
      -0.10636077155885285,
      -0.12170294807730718,
      -0.01033171912606447,
      -0.05512793665993822,
      -0.029627531602167058,
      -0.05354861510441223,
      -0.15972563016181227,
      -0.01700581444669995,
      -0.1534195198141402,
      -0.2011726589182782,
      0.04204069812267226,
      -0.07602511131695887,
      0.013707306871791504,
      -0.05766526170067657,
      -0.10478637197091402,
      -0.017898660371529828,
      -0.13215272097987868,
      -0.07447386052976812,
      -0.09793042158914593,
      -0.07099751874446028,
      0.31633420622756225,
      0.3368461791326626,
      0.3496115652919045,
      0.2271088253972678,
      0.39880925985946547,
      0.2525008672258577,
      0.3724423106144781,
      0.33158446711428496,
      0.28414963416458083,
      0.21044797693357706,
      0.349316769191377,
      0.25972863680174363,
      0.22099598689494512,
      0.3212381937245021,
      0.17595214815042223,
      0.28686108004019767,
      0.18224573014469375,
      0.16754000172741507,
      0.32349711219165883,
      0.27732168954990793,
      0.3483020336690433,
      0.29453423525936345,
      0.3161970376710372,
      0.16188578164014714,
      0.32562638310783615,
      0.23255073053959058,
      0.2944125504148982,
      0.19268517256342158,
      0.33965226238386587,
      0.2797722581669068,
      0.2280046747857318
    ],
    [
      0.05805544929563853,
      -0.04919118924452093,
      0.0072583915711907036,
      0.016372689298460277,
      -0.0451692972734052,
      -0.053087546039113455,
      0.03326890028223746,
      -0.0683855355779338,
      0.025358036402013617,
      0.07202692816052224,
      0.029425474436185484,
      -0.08022212950487875,
      -0.0585182022456237,
      -0.042693272312376476,
      -0.05694915546614898,
      0.03325590685193256,
      -0.06278470287458236,
      -0.09372714634928166,
      -0.09740895880792683,
      0.036883512548066745,
      0.05718618383049234,
      -0.05751470770678955,
      -0.00857069113126408,
      0.07496036501129902,
      -0.038876678159556824,
      0.09712208338291767,
      0.03203859026723951,
      0.08172796848394066,
      0.056578663233779525,
      -0.061092939693033234,
      -0.06176525478404696,
      0.019156390667116507,
      0.06304009273738728,
      0.02545079151134616,
      -0.033528594900032654,
      -0.018088299373873885,
      0.09178373469901513,
      -0.022877001848056234,
      -0.09172171081119909,
      0.009673831268024591,
      0.015036704183949468,
      0.06257333301722659,
      -0.02911164522095344,
      -0.07864175867785579,
      0.016079350327652665,
      -0.0443633126013194,
      0.018727072289722757,
      0.0685838230557981,
      0.0027663890581869424,
      -0.038183042827110394,
      0.03661814671018958,
      -0.10045008954745842,
      0.07189324603759623,
      -0.009927669841808056,
      0.08820815746121581,
      -0.0312575624615291,
      0.04503598328754904,
      -0.03140925248305947,
      -0.07677707133983318,
      0.019990029356505304,
      -0.034726821065348114,
      0.016739346587503104,
      -0.0559044843478552,
      -0.07294470016664212,
      0.006569923713898218,
      0.06465593502346052,
      -0.039985797695418636,
      -0.01125593338914528,
      -0.054748606246279155,
      -0.006849283046958599,
      0.06868856747046355,
      0.02738220398503901,
      0.036184874148414856,
      0.08808683380373604,
      0.08727925754278149,
      0.03347724381137694
    ],
    [
      0.08438095425460715,
      -0.021489665430895002,
      0.003673167671432259,
      0.17115554629863278,
      -0.02616368826048868,
      -0.09098363203238692,
      0.06722302305568803,
      0.02429030900420682,
      0.07777029415225782,
      -0.08008770184287708,
      0.10686314619298835,
      -0.030999202595563588,
      -0.06972614183694388,
      -0.0755069365474066,
      0.0378496822237182,
      0.04060106048743016,
      0.012486269475842679,
      0.0036065457039730717,
      -0.006265042768611762,
      0.04316156587873038,
      0.09629330028528986,
      0.06111945036052899,
      0.02119899295720409,
      0.11875208521889709,
      0.11483760337678593,
      0.10184815975244946,
      0.028395050576692962,
      0.0952798572366256,
      0.11731183056534421,
      -0.02102769482714245,
      0.03867453983414246,
      -0.061254425905043965,
      0.041225230122892684,
      0.11307520518412971,
      0.03484412111726409,
      -0.005200923041513436,
      -0.04670426667499641,
      0.03838417689288261,
      0.045589216062087004,
      0.12024381676799799,
      -0.029054126309434946,
      0.1057905298796732,
      -0.0069407031482388104,
      -0.041046836969228034,
      0.07146558873093663,
      -0.08483313290134974,
      -0.09291320629227284,
      0.07052158715645884,
      -0.07275550500139527,
      0.016649971700228108,
      0.012185793373630283,
      -0.09508995743300397,
      0.0313890965641674,
      0.009863332171942041,
      0.02747363773675689,
      0.025739048510668404,
      0.05531200427836745,
      0.04853078170463897,
      -0.07634994966039228,
      -0.1027324922700787,
      -0.047274607371487296,
      0.022207945456428516,
      -0.03450509208300243,
      -0.06694675087688876,
      -0.003576802933656165,
      0.019550890488359007,
      0.022655904159922316,
      -0.03527671479349537,
      -0.0588446622209565,
      -0.01625027532920962,
      0.005645122128351235,
      -0.02166555090413056,
      0.006800870264422298,
      0.017302685554348482,
      0.03897071852830029,
      -0.026050887815888962
    ],
    [
      -0.026167296084187885,
      -0.08762331404033241,
      0.07873474858422816,
      -0.04440071965925536,
      -0.054701377940149704,
      -0.029794748473237043,
      0.029310652208678834,
      -0.03702812970051115,
      -0.026392992291247988,
      0.011472761631907647,
      -0.07727890484467022,
      -0.08206354330196707,
      -0.00002321115745540503,
      -0.09982408497430746,
      0.019076821922101406,
      0.10825315354150264,
      -0.011485142229572582,
      0.10699620934113606,
      0.04124133624845315,
      0.08434213459279588,
      0.03882946643335211,
      -0.033099985258812276,
      0.0074455175749059115,
      -0.010908048157071455,
      -0.054809542653972726,
      0.027523584620247066,
      0.017821767941846423,
      -0.039527003971249114,
      0.006183084497166158,
      0.01440246933011049,
      0.06053030127657073,
      -0.003742023918299342,
      -0.0789826470740343,
      0.02135491320169085,
      -0.05225625665059517,
      0.03018832215365084,
      0.08839686909817651,
      -0.07998871075811609,
      0.04989078858813616,
      -0.021220904347324113,
      -0.07445838491131661,
      -0.051918876737103804,
      -0.0052526857250948305,
      -0.06802851146722362,
      0.001491732919477906,
      -0.07771106460010815,
      -0.07551008442243093,
      -0.006923187804907505,
      0.04640104352700747,
      0.03589132742177057,
      0.011306490835177652,
      -0.04423500551740056,
      -0.09995768581711256,
      -0.04015395529905992,
      0.01740831995462505,
      -0.08449769662630444,
      -0.08354872336209158,
      0.017866744473692443,
      0.07171440982051423,
      -0.057669926066668126,
      0.05678001434239772,
      0.0640584997796905,
      0.07822955800868459,
      -0.0814050303510676,
      -0.05077657452397682,
      -0.002064957724451993,
      0.08474099039819534,
      0.06735093791155522,
      0.04445732993260054,
      0.013251956865699863,
      -0.0776494677491185,
      0.08926952932745671,
      0.06378102893785247,
      -0.04504078871357882,
      0.09259048416226334,
      -0.09615007152866727
    ],
    [
      0.041379410645018405,
      -0.06855185997190612,
      -0.04981096121104214,
      0.023336934621374626,
      0.10022726664049879,
      0.08228706121615548,
      -0.0610041105589707,
      -0.011118873070150982,
      -0.06862722858544466,
      -0.0299553632486131,
      -0.03605761226768287,
      -0.020178355429586237,
      -0.054480456030951,
      0.07523645722739261,
      0.04488407107904009,
      -0.013641326417971347,
      0.022461853091958348,
      0.014512455285270173,
      0.04502915935503712,
      0.018576712336885137,
      -0.020211926716396666,
      0.03184929867542323,
      -0.07017204827674907,
      0.09818107045075661,
      0.08054590998333838,
      0.024263348721607167,
      -0.03652188392743052,
      -0.032829127429427805,
      0.0699793783165128,
      0.04600596935893134,
      0.023203563574699215,
      -0.09720773354547374,
      -0.050568064917666966,
      -0.09423477093583431,
      -0.010454790785005219,
      0.06382495439154594,
      0.05214786290315533,
      0.05477665877597239,
      0.08941103129811,
      -0.09319703425116456,
      0.039644698208788104,
      -0.06795445800783166,
      0.005660985240937861,
      0.08015318312879817,
      0.03116165771161228,
      -0.09254753807074102,
      0.08399154809382474,
      0.04297757060395549,
      -0.017138032054432355,
      0.01466402665915269,
      -0.03214063090499868,
      0.08318602404249929,
      -0.05341725005158809,
      -0.030959221422297872,
      -0.0939715770108216,
      0.06439081568904408,
      0.023769043796194822,
      -0.0884593875885142,
      0.06755557719801507,
      0.04690385802683261,
      -0.020836399575078303,
      -0.026843416225620722,
      0.054433697809897985,
      -0.012458046117081678,
      0.02629880555088577,
      0.07421822452329067,
      -0.09360680451128957,
      -0.06780728043291986,
      0.003609810387428315,
      0.013928866654406962,
      -0.06402329846517639,
      -0.05098518101516745,
      0.02991444384520077,
      0.02846522895570196,
      -0.05087389380041101,
      -0.0037293462346915888
    ],
    [
      0.2331756571589063,
      0.1775874932650756,
      0.18515413085880938,
      0.8566888807837834,
      0.4023953105901595,
      0.1359310478658095,
      0.16415364043531372,
      0.10985677136211681,
      0.09846753521432954,
      0.09930971932210834,
      0.1936084021771704,
      0.09463946478256956,
      0.13451577140319543,
      0.18056682243361993,
      0.22334111789708033,
      0.17650088958557772,
      0.20218479618177135,
      0.28734119711081146,
      0.1698174074671439,
      0.26230813241334267,
      0.26158081558049995,
      0.2101899579180956,
      0.0167944629343531,
      0.25471370826189926,
      0.15560769990085993,
      0.17932231805458143,
      0.3946717996701913,
      0.33683163286457285,
      0.4212921345915587,
      0.2688213461072421,
      0.403245504568478,
      0.2348176000303571,
      0.3841802433106755,
      0.42188015955838487,
      0.37076119727730866,
      0.1764685287674553,
      0.22570889591849727,
      0.31894902674565184,
      0.24889188174435473,
      0.36398314459464026,
      0.306083402815609,
      0.20978178328742925,
      0.22249872755811606,
      0.26638775359286754,
      0.20174879851008726,
      0.002449943538492313,
      -0.16421280961170648,
      -0.13128911178128055,
      0.013241469348772869,
      -0.014799792342185588,
      -0.05402795426159076,
      -0.006187245105169375,
      -0.1616680169886757,
      -0.13338929266236058,
      -0.09859504887229883,
      -0.13142828337352122,
      -0.020234573448503865,
      -0.07435466377300781,
      -0.06135176987881809,
      -0.0825311226067267,
      -0.13879828980561343,
      -0.04275745608267005,
      -0.1195311991782602,
      -0.06082477227878909,
      -0.008875744124748555,
      -0.056199214030114235,
      -0.09463268585197349,
      -0.06393907811947817,
      -0.12620539582074672,
      -0.12002561302625807,
      -0.14283964814448843,
      -0.19049158506912664,
      -0.09920948899576566,
      -0.12338610641277681,
      -0.03430244005389694,
      -0.17146325726612613
    ]
  ],
  "biasHidden": [
    0.10312208841148227,
    0.41479896846065667,
    0.8012297725248023,
    -0.01514170107112742,
    0.04702499073285976,
    -0.007082476464653485,
    0.001355728103770003,
    0.649831583872114
  ],
  "weightsOutput": [
    [
      -0.27919670540560604,
      -0.9847241934976928,
      -1.8114895274204683,
      -0.01769148622584403,
      0.23380023984378417,
      0.011780398794467658,
      0.08763929943953411,
      1.9817471018389847
    ]
  ],
  "biasOutput": [
    -0.43323407925985674
  ]
}
